{
  "type": "LSTM",
  "options": {
    "inputSize": 31,
    "inputRange": 31,
    "hiddenLayers": [
      20,
      20
    ],
    "outputSize": 31,
    "decayRate": 0.999,
    "smoothEps": 1e-8,
    "regc": 0.000001,
    "clipval": 5,
    "maxPredictionLength": 100,
    "dataFormatter": {
      "values": [
        "my unit test failed",
        "software",
        "tried the program, but it was buggy",
        "i need a new power supply",
        "hardware",
        "the drive has a 2TB capacity",
        "unit-tests",
        "program",
        "power supply",
        "drive",
        "it needs more memory",
        "code",
        "i found some bugs in the code",
        "i swapped the memory",
        "i tested the code",
        "i love computers",
        "programming",
        "i broke my pc",
        "computer",
        "buy me a laptop",
        "i love to play games"
      ],
      "indexTable": {
        "2": 22,
        "m": 0,
        "y": 1,
        " ": 2,
        "u": 3,
        "n": 4,
        "i": 5,
        "t": 6,
        "e": 7,
        "s": 8,
        "f": 9,
        "a": 10,
        "l": 11,
        "d": 12,
        "o": 13,
        "w": 14,
        "r": 15,
        "h": 16,
        "p": 17,
        "g": 18,
        ",": 19,
        "b": 20,
        "v": 21,
        "T": 23,
        "B": 24,
        "c": 25,
        "-": 26,
        "k": 27,
        "stop-input": 28,
        "start-output": 29,
        "unrecognized": 30
      },
      "characterTable": {
        "0": "m",
        "1": "y",
        "2": " ",
        "3": "u",
        "4": "n",
        "5": "i",
        "6": "t",
        "7": "e",
        "8": "s",
        "9": "f",
        "10": "a",
        "11": "l",
        "12": "d",
        "13": "o",
        "14": "w",
        "15": "r",
        "16": "h",
        "17": "p",
        "18": "g",
        "19": ",",
        "20": "b",
        "21": "v",
        "22": "2",
        "23": "T",
        "24": "B",
        "25": "c",
        "26": "-",
        "27": "k",
        "28": null,
        "29": null,
        "30": null
      },
      "characters": [
        "m",
        "y",
        " ",
        "u",
        "n",
        "i",
        "t",
        "e",
        "s",
        "f",
        "a",
        "l",
        "d",
        "o",
        "w",
        "r",
        "h",
        "p",
        "g",
        ",",
        "b",
        "v",
        "2",
        "T",
        "B",
        "c",
        "-",
        "k",
        "stop-input",
        "start-output",
        "unrecognized"
      ],
      "specialIndexes": [
        28,
        29,
        30
      ]
    }
  },
  "input": {
    "rows": 32,
    "columns": 31,
    "weights": {
      "0": 2.584726572036743,
      "1": -1.2173848152160645,
      "2": 2.046351194381714,
      "3": -1.2450296878814697,
      "4": 1.3422843217849731,
      "5": -0.41704291105270386,
      "6": 1.068040132522583,
      "7": 1.5898780822753906,
      "8": -0.7446274757385254,
      "9": 0.07689174264669418,
      "10": 0.6560639142990112,
      "11": -1.392357349395752,
      "12": -1.7067054510116577,
      "13": 0.9142285585403442,
      "14": 0.12262178957462311,
      "15": 0.46713072061538696,
      "16": -0.9167034029960632,
      "17": -0.9295555353164673,
      "18": -0.1930089145898819,
      "19": 0.1956000030040741,
      "20": 0.9216498732566833,
      "21": 0.28443872928619385,
      "22": 2.2821242809295654,
      "23": -2.2909247875213623,
      "24": -0.7338210344314575,
      "25": -3.685612201690674,
      "26": -0.44536611437797546,
      "27": -0.5161430835723877,
      "28": -1.2792600393295288,
      "29": 1.9000616073608398,
      "30": 0.2698512077331543,
      "31": 2.1693837642669678,
      "32": -0.2906913757324219,
      "33": 0.13103196024894714,
      "34": 2.8807573318481445,
      "35": -4.360797882080078,
      "36": -2.6223607063293457,
      "37": 1.8130457401275635,
      "38": -3.5907773971557617,
      "39": -0.19471371173858643,
      "40": 5.353450775146484,
      "41": 0.1972695291042328,
      "42": -2.221745252609253,
      "43": 1.8636305332183838,
      "44": -0.37726014852523804,
      "45": 0.38004738092422485,
      "46": -0.09138289093971252,
      "47": 3.316775321960449,
      "48": -0.9877128005027771,
      "49": -3.9123902320861816,
      "50": 1.799452304840088,
      "51": 0.5655590295791626,
      "52": -2.3901045322418213,
      "53": -2.7544753551483154,
      "54": -1.5371696949005127,
      "55": 0.1432337909936905,
      "56": -1.421419382095337,
      "57": 2.651216506958008,
      "58": 3.403841972351074,
      "59": -1.3844479322433472,
      "60": -2.117363452911377,
      "61": 0.5613004565238953,
      "62": 0.4850206971168518,
      "63": -0.710868239402771,
      "64": -0.7554154992103577,
      "65": 1.1675347089767456,
      "66": 5.042139530181885,
      "67": -0.8631052374839783,
      "68": 2.2173385620117188,
      "69": 1.132510781288147,
      "70": -0.12912221252918243,
      "71": -1.9649986028671265,
      "72": -3.329256057739258,
      "73": 1.2472573518753052,
      "74": -0.33327776193618774,
      "75": -1.1631323099136353,
      "76": 6.819847583770752,
      "77": -2.427703857421875,
      "78": -0.23189015686511993,
      "79": -1.7577611207962036,
      "80": 4.108451843261719,
      "81": -0.7291285991668701,
      "82": -2.1124465465545654,
      "83": 1.9540106058120728,
      "84": 0.8522525429725647,
      "85": -2.027860164642334,
      "86": -0.7107459902763367,
      "87": 0.6920121312141418,
      "88": 0.7742480039596558,
      "89": -4.168339729309082,
      "90": 1.5387334823608398,
      "91": -4.368459224700928,
      "92": -2.9872775077819824,
      "93": 0.27812108397483826,
      "94": 0.4369451701641083,
      "95": -0.14179778099060059,
      "96": 2.52815318107605,
      "97": 3.830490827560425,
      "98": -0.6347227096557617,
      "99": -0.7800974249839783,
      "100": 0.69072026014328,
      "101": 1.3085384368896484,
      "102": -2.69740629196167,
      "103": -0.3131202161312103,
      "104": 0.6448374390602112,
      "105": -0.06838119029998779,
      "106": 0.49302372336387634,
      "107": 0.06271278858184814,
      "108": -1.3962085247039795,
      "109": -3.893498659133911,
      "110": 0.31092923879623413,
      "111": -0.6115947365760803,
      "112": -2.4599549770355225,
      "113": 0.14271628856658936,
      "114": 2.9185593128204346,
      "115": -1.6176772117614746,
      "116": -0.06479959189891815,
      "117": -1.9664899110794067,
      "118": -2.4687798023223877,
      "119": 3.3793957233428955,
      "120": -0.9599756002426147,
      "121": -0.32703709602355957,
      "122": -0.5491834878921509,
      "123": -0.4469999372959137,
      "124": -2.8237874507904053,
      "125": -0.0671059787273407,
      "126": 0.29243943095207214,
      "127": -0.5600484609603882,
      "128": -1.6587119102478027,
      "129": -2.3785436153411865,
      "130": 0.8139354586601257,
      "131": 2.5890488624572754,
      "132": -1.5129269361495972,
      "133": 0.9781986474990845,
      "134": 1.3389003276824951,
      "135": 0.9143988490104675,
      "136": 2.2211360931396484,
      "137": 1.3384166955947876,
      "138": 0.7637490630149841,
      "139": 3.138859510421753,
      "140": 0.9156887531280518,
      "141": -1.0058749914169312,
      "142": -0.6641162037849426,
      "143": -0.2285689413547516,
      "144": 2.1999828815460205,
      "145": -1.4425203800201416,
      "146": -1.316955327987671,
      "147": 4.3205246925354,
      "148": 7.21830415725708,
      "149": 2.067458152770996,
      "150": 0.09495190531015396,
      "151": 1.2324724197387695,
      "152": 1.5947142839431763,
      "153": 0.7246758937835693,
      "154": 1.8162137269973755,
      "155": -0.8632017970085144,
      "156": 0.9256687164306641,
      "157": 1.9153013229370117,
      "158": -1.568656325340271,
      "159": -4.560684680938721,
      "160": 1.667096495628357,
      "161": 1.62472403049469,
      "162": 0.5802222490310669,
      "163": -3.280141592025757,
      "164": 4.613281726837158,
      "165": 0.7072059512138367,
      "166": -0.6070291996002197,
      "167": -2.6189513206481934,
      "168": -3.5998220443725586,
      "169": -5.453347206115723,
      "170": 4.300705909729004,
      "171": 2.629878282546997,
      "172": -2.3745362758636475,
      "173": 1.4801682233810425,
      "174": 1.2304306030273438,
      "175": 4.46632194519043,
      "176": 1.4008841514587402,
      "177": 0.4970947504043579,
      "178": -1.3909592628479004,
      "179": -5.155620574951172,
      "180": -4.641288757324219,
      "181": -2.3473129272460938,
      "182": 4.911098003387451,
      "183": 0.044988907873630524,
      "184": 3.2219088077545166,
      "185": -0.9436231851577759,
      "186": -0.6681162118911743,
      "187": 1.9373124837875366,
      "188": 2.0312681198120117,
      "189": -2.3813655376434326,
      "190": -0.6113870739936829,
      "191": -0.059035830199718475,
      "192": 0.31575366854667664,
      "193": 3.494572401046753,
      "194": 1.7795283794403076,
      "195": -1.502055287361145,
      "196": 0.4992138743400574,
      "197": 0.36879828572273254,
      "198": -4.29425048828125,
      "199": -3.5098063945770264,
      "200": -0.9103619456291199,
      "201": -0.6993109583854675,
      "202": -2.0515081882476807,
      "203": -2.5203301906585693,
      "204": 2.459331512451172,
      "205": -1.8211276531219482,
      "206": 0.8808746933937073,
      "207": 4.212409496307373,
      "208": 4.407702445983887,
      "209": 0.8453307747840881,
      "210": -1.9082036018371582,
      "211": -2.827967643737793,
      "212": -1.3307198286056519,
      "213": -0.3596457540988922,
      "214": -0.7695803642272949,
      "215": 0.5492025017738342,
      "216": 0.817764937877655,
      "217": -0.76323401927948,
      "218": 0.6892314553260803,
      "219": -1.9843285083770752,
      "220": -2.9184389114379883,
      "221": 0.313331663608551,
      "222": 2.800467014312744,
      "223": -0.0372738279402256,
      "224": 0.5745322108268738,
      "225": 1.4275845289230347,
      "226": -3.3277344703674316,
      "227": -1.8058842420578003,
      "228": 0.702946126461029,
      "229": -0.24354328215122223,
      "230": 1.334301471710205,
      "231": -0.8089455366134644,
      "232": -0.5334042310714722,
      "233": -0.021862396970391273,
      "234": 1.164827823638916,
      "235": 1.1771692037582397,
      "236": 1.2230582237243652,
      "237": -0.5053892135620117,
      "238": -0.3176131844520569,
      "239": 1.7343324422836304,
      "240": 0.5209264159202576,
      "241": 0.5035666227340698,
      "242": 2.2650539875030518,
      "243": -0.08474332839250565,
      "244": -1.7081276178359985,
      "245": 2.40828013420105,
      "246": -1.2370961904525757,
      "247": -3.5854997634887695,
      "248": -1.9691191911697388,
      "249": 0.9841848015785217,
      "250": 0.051359374076128006,
      "251": 0.9482062458992004,
      "252": 1.1892277002334595,
      "253": -1.2015069723129272,
      "254": -1.068244457244873,
      "255": -1.0466139316558838,
      "256": 1.1730490922927856,
      "257": -1.4079962968826294,
      "258": -0.8217402100563049,
      "259": 0.17012421786785126,
      "260": 1.648444414138794,
      "261": -1.2261086702346802,
      "262": 1.999786376953125,
      "263": 0.3923715054988861,
      "264": -1.2171975374221802,
      "265": 0.8860111832618713,
      "266": 1.5669059753417969,
      "267": -1.0217056274414062,
      "268": -0.5966941118240356,
      "269": 0.5353914499282837,
      "270": -0.5193940997123718,
      "271": 0.5733171105384827,
      "272": 1.2313954830169678,
      "273": 0.1293049454689026,
      "274": 2.3937065601348877,
      "275": -1.6529165506362915,
      "276": 0.2560584247112274,
      "277": -0.725533664226532,
      "278": -1.4116464853286743,
      "279": 0.7720282673835754,
      "280": 0.10892211645841599,
      "281": -0.30026575922966003,
      "282": 1.268174171447754,
      "283": -1.3587727546691895,
      "284": 1.014831304550171,
      "285": 0.8256973028182983,
      "286": -2.4544336795806885,
      "287": -0.06076804921030998,
      "288": 0.41064485907554626,
      "289": -0.6440954208374023,
      "290": 1.8783093690872192,
      "291": 3.5441508293151855,
      "292": 1.5750151872634888,
      "293": 1.514552116394043,
      "294": -0.403464674949646,
      "295": 1.603257417678833,
      "296": -0.2091924548149109,
      "297": -0.7330482602119446,
      "298": 0.29998335242271423,
      "299": 0.2877921462059021,
      "300": -0.24240344762802124,
      "301": -2.3239474296569824,
      "302": 0.7032962441444397,
      "303": 1.298885703086853,
      "304": 0.38114914298057556,
      "305": -1.0236936807632446,
      "306": 1.9788254499435425,
      "307": -1.9468390941619873,
      "308": -1.5705804824829102,
      "309": 1.323542594909668,
      "310": -3.3706328868865967,
      "311": 4.147917747497559,
      "312": 0.42556655406951904,
      "313": 1.4552738666534424,
      "314": -0.9740270972251892,
      "315": 2.5581510066986084,
      "316": 0.4102852940559387,
      "317": 3.9565696716308594,
      "318": -1.0931848287582397,
      "319": -0.8042330145835876,
      "320": 1.2129416465759277,
      "321": 3.2899553775787354,
      "322": 1.3731366395950317,
      "323": -2.2916622161865234,
      "324": 1.970733880996704,
      "325": -2.1236836910247803,
      "326": -0.984345018863678,
      "327": -1.5487812757492065,
      "328": 2.5744569301605225,
      "329": -4.314998626708984,
      "330": -2.5970301628112793,
      "331": 0.884562075138092,
      "332": -1.1422338485717773,
      "333": 2.3808608055114746,
      "334": -0.45377981662750244,
      "335": -0.33759844303131104,
      "336": 1.8654934167861938,
      "337": 1.5730043649673462,
      "338": 2.07020902633667,
      "339": 2.463392496109009,
      "340": -0.4841320216655731,
      "341": -0.4298463463783264,
      "342": -0.15659098327159882,
      "343": 1.2538881301879883,
      "344": 0.8487365245819092,
      "345": -0.14025352895259857,
      "346": -1.763383150100708,
      "347": -0.2879618704319,
      "348": -0.5467414259910583,
      "349": 0.12657317519187927,
      "350": 0.00036406892468221486,
      "351": -0.3841555416584015,
      "352": 0.3331874907016754,
      "353": 0.22757405042648315,
      "354": -0.7053635120391846,
      "355": 0.30619296431541443,
      "356": -1.3573333024978638,
      "357": 0.009318233467638493,
      "358": -1.2565609216690063,
      "359": 0.4458061456680298,
      "360": -0.27262312173843384,
      "361": -0.5771802067756653,
      "362": -0.34398579597473145,
      "363": -0.25232744216918945,
      "364": -0.6163957715034485,
      "365": 0.36687543988227844,
      "366": -0.2256678342819214,
      "367": -0.38615283370018005,
      "368": -0.4937337040901184,
      "369": 0.03969313204288483,
      "370": 0.4768509268760681,
      "371": -0.35496971011161804,
      "372": -0.5148388147354126,
      "373": -2.9412078857421875,
      "374": -5.5674920082092285,
      "375": -2.5242743492126465,
      "376": -4.01184606552124,
      "377": -0.30697566270828247,
      "378": -2.863363742828369,
      "379": -3.8223044872283936,
      "380": -1.8180890083312988,
      "381": 4.4363274574279785,
      "382": 1.2264621257781982,
      "383": -4.384459495544434,
      "384": 2.909818410873413,
      "385": 3.3902461528778076,
      "386": -6.375261306762695,
      "387": 3.6272683143615723,
      "388": 1.6374067068099976,
      "389": 4.736406326293945,
      "390": -4.5213446617126465,
      "391": -1.037376046180725,
      "392": 1.4103538990020752,
      "393": -0.116759292781353,
      "394": -1.6363613605499268,
      "395": 4.448737621307373,
      "396": 2.4029927253723145,
      "397": 4.060088634490967,
      "398": -3.2256383895874023,
      "399": 1.1238940954208374,
      "400": 2.7907028198242188,
      "401": 0.3013409674167633,
      "402": -2.2676076889038086,
      "403": -1.8633406162261963,
      "404": 0.7772620916366577,
      "405": 1.8665436506271362,
      "406": -2.369173526763916,
      "407": -0.4105849266052246,
      "408": 4.627898693084717,
      "409": -0.9308061003684998,
      "410": 2.3690757751464844,
      "411": -1.2371009588241577,
      "412": 0.9903152585029602,
      "413": 1.1825487613677979,
      "414": 4.000160217285156,
      "415": -0.816970705986023,
      "416": 1.1624605655670166,
      "417": -2.59993839263916,
      "418": 1.2479594945907593,
      "419": -0.6236491799354553,
      "420": 0.02673875354230404,
      "421": -0.550250232219696,
      "422": 1.4871176481246948,
      "423": 1.1157104969024658,
      "424": 1.2730448246002197,
      "425": -0.2469450682401657,
      "426": 0.40779733657836914,
      "427": -4.420753002166748,
      "428": -0.7604464888572693,
      "429": -1.9303205013275146,
      "430": 2.4137461185455322,
      "431": -2.8416826725006104,
      "432": 3.51737117767334,
      "433": 0.6495788097381592,
      "434": 0.5003887414932251,
      "435": -0.8308770656585693,
      "436": -0.4661225378513336,
      "437": 1.2542914152145386,
      "438": -2.0565731525421143,
      "439": 0.8202107548713684,
      "440": -0.567372739315033,
      "441": -0.18490947782993317,
      "442": 0.37822890281677246,
      "443": 0.630515456199646,
      "444": 1.7919845581054688,
      "445": -0.9702795743942261,
      "446": -0.5645341277122498,
      "447": 1.5217849016189575,
      "448": -2.648375988006592,
      "449": -0.48367536067962646,
      "450": 0.005773591343313456,
      "451": 0.2709400951862335,
      "452": -1.1695610284805298,
      "453": -0.21139155328273773,
      "454": -0.015473710373044014,
      "455": -0.3515475392341614,
      "456": -0.8718151450157166,
      "457": 0.8536004424095154,
      "458": -1.9182404279708862,
      "459": -1.2575231790542603,
      "460": 1.2523928880691528,
      "461": 3.3394830226898193,
      "462": -0.3429982364177704,
      "463": 1.6707301139831543,
      "464": 2.4644148349761963,
      "465": 1.8014333248138428,
      "466": 1.274659276008606,
      "467": -2.5267369747161865,
      "468": -0.721156120300293,
      "469": 1.406274676322937,
      "470": -0.5383619070053101,
      "471": -2.41544771194458,
      "472": -0.4059695303440094,
      "473": 0.03500334545969963,
      "474": -1.356799602508545,
      "475": 0.6373634934425354,
      "476": -1.3060632944107056,
      "477": -1.3879897594451904,
      "478": 2.220289945602417,
      "479": -0.48526760935783386,
      "480": 0.42430102825164795,
      "481": -3.298290491104126,
      "482": 2.3343822956085205,
      "483": 0.22918234765529633,
      "484": 0.21815791726112366,
      "485": 1.3971729278564453,
      "486": 3.3207924365997314,
      "487": 0.42452549934387207,
      "488": 1.8111436367034912,
      "489": -1.1695743799209595,
      "490": 1.930946946144104,
      "491": -0.8056965470314026,
      "492": -1.175050973892212,
      "493": -0.30606481432914734,
      "494": -0.9114649891853333,
      "495": -0.8172704577445984,
      "496": 0.9253376126289368,
      "497": -0.06536953896284103,
      "498": -1.1042109727859497,
      "499": -0.4186953008174896,
      "500": 0.0005845868145115674,
      "501": -1.6014457941055298,
      "502": -1.7886046171188354,
      "503": -0.4527024030685425,
      "504": -0.4234139621257782,
      "505": 0.7490963339805603,
      "506": 2.3749279975891113,
      "507": -1.230450987815857,
      "508": 1.0487092733383179,
      "509": -0.4745306372642517,
      "510": 0.7915526628494263,
      "511": 0.43315550684928894,
      "512": 0.7233023047447205,
      "513": 1.0073771476745605,
      "514": 0.8191448450088501,
      "515": 0.9291315674781799,
      "516": 1.057887315750122,
      "517": -0.8301293849945068,
      "518": -1.0204956531524658,
      "519": 1.03984797000885,
      "520": 2.4493136405944824,
      "521": 0.14677181839942932,
      "522": -1.6094133853912354,
      "523": 0.5426658391952515,
      "524": -0.6315196752548218,
      "525": -1.667245626449585,
      "526": 0.6598001718521118,
      "527": 2.8566205501556396,
      "528": 0.5337108969688416,
      "529": -2.706052541732788,
      "530": 1.7401636838912964,
      "531": 0.6722785830497742,
      "532": -1.2725979089736938,
      "533": -2.1499836444854736,
      "534": 0.6697782278060913,
      "535": -0.7573295831680298,
      "536": 0.2040308713912964,
      "537": 0.3885771632194519,
      "538": -2.8805108070373535,
      "539": 0.034130070358514786,
      "540": 2.9583206176757812,
      "541": -0.1293172836303711,
      "542": 1.3903076648712158,
      "543": -0.6959447860717773,
      "544": 4.854610919952393,
      "545": -2.2999305725097656,
      "546": 0.6026002168655396,
      "547": 2.0117475986480713,
      "548": 0.9251421093940735,
      "549": -2.174447536468506,
      "550": 3.2078616619110107,
      "551": 1.344579815864563,
      "552": -0.06247328221797943,
      "553": 0.5769931077957153,
      "554": 0.18304738402366638,
      "555": 3.2277095317840576,
      "556": -3.8634321689605713,
      "557": -0.8892607092857361,
      "558": 0.7332740426063538,
      "559": -1.9372200965881348,
      "560": 0.4157918691635132,
      "561": -0.2819311022758484,
      "562": 2.952542543411255,
      "563": 0.6511704325675964,
      "564": 1.545360803604126,
      "565": 1.4801198244094849,
      "566": 0.7308255434036255,
      "567": -4.806372165679932,
      "568": -1.4186835289001465,
      "569": 0.3210291266441345,
      "570": -1.6562044620513916,
      "571": -0.4055677354335785,
      "572": 0.27165931463241577,
      "573": -3.936049699783325,
      "574": -4.198299407958984,
      "575": 1.102773904800415,
      "576": -1.644507646560669,
      "577": -5.177058696746826,
      "578": -1.5628767013549805,
      "579": 0.6661632061004639,
      "580": 0.8905772566795349,
      "581": 0.6324313282966614,
      "582": -2.7004940509796143,
      "583": -1.3038570880889893,
      "584": 0.5581912398338318,
      "585": -2.194850444793701,
      "586": 3.6008338928222656,
      "587": 1.4078128337860107,
      "588": -3.0365617275238037,
      "589": -0.5873426198959351,
      "590": 0.7380545139312744,
      "591": -1.7276091575622559,
      "592": -4.287911415100098,
      "593": 1.6516722440719604,
      "594": 3.202759027481079,
      "595": 0.6318484544754028,
      "596": 1.2240662574768066,
      "597": -5.422796726226807,
      "598": 2.550283908843994,
      "599": 2.232144594192505,
      "600": 2.0404086112976074,
      "601": -2.8314332962036133,
      "602": 0.9090337157249451,
      "603": -4.416457176208496,
      "604": -4.603343963623047,
      "605": -3.9784061908721924,
      "606": 2.400928258895874,
      "607": 2.0024304389953613,
      "608": -6.086275100708008,
      "609": 2.171353578567505,
      "610": 2.326300859451294,
      "611": 0.7269469499588013,
      "612": 0.5842362642288208,
      "613": -3.858236789703369,
      "614": -2.4144158363342285,
      "615": -2.9973113536834717,
      "616": 0.08619643747806549,
      "617": 1.3627097606658936,
      "618": -2.4652488231658936,
      "619": -3.711855173110962,
      "620": -13.183950424194336,
      "621": 1.0043087005615234,
      "622": -4.115184307098389,
      "623": 5.3167572021484375,
      "624": 6.644326686859131,
      "625": -1.1510076522827148,
      "626": 0.9835060238838196,
      "627": 1.0147837400436401,
      "628": 3.888866901397705,
      "629": -8.56828784942627,
      "630": 0.6938860416412354,
      "631": 14.457011222839355,
      "632": 3.6179842948913574,
      "633": -11.998875617980957,
      "634": 5.556385517120361,
      "635": -6.285841464996338,
      "636": 1.1320041418075562,
      "637": 0.17910030484199524,
      "638": 8.26506519317627,
      "639": -9.256933212280273,
      "640": -22.098690032958984,
      "641": 2.134648084640503,
      "642": -4.887277126312256,
      "643": -5.454248905181885,
      "644": -0.17931781709194183,
      "645": 9.537897109985352,
      "646": 0.6873215436935425,
      "647": -10.48949909210205,
      "648": 7.647769451141357,
      "649": -6.736624240875244,
      "650": -4.489156723022461,
      "651": 2.73374080657959,
      "652": -4.122214317321777,
      "653": 0.8630616068840027,
      "654": -3.100158214569092,
      "655": -0.8354817628860474,
      "656": 5.990704536437988,
      "657": 3.8945887088775635,
      "658": 5.95947790145874,
      "659": -0.565334141254425,
      "660": -3.03897762298584,
      "661": 2.841571569442749,
      "662": -0.6313177943229675,
      "663": -3.8990633487701416,
      "664": 2.529031991958618,
      "665": -4.891232490539551,
      "666": 3.519312620162964,
      "667": -1.4009130001068115,
      "668": -1.8778114318847656,
      "669": -2.5159080028533936,
      "670": 5.009859085083008,
      "671": -2.8343381881713867,
      "672": -6.297343730926514,
      "673": 6.5418877601623535,
      "674": -4.052702903747559,
      "675": -10.546647071838379,
      "676": -1.8075878620147705,
      "677": 1.2184618711471558,
      "678": 0.9563407301902771,
      "679": -2.8975324630737305,
      "680": 1.1943562030792236,
      "681": 1.6401153802871704,
      "682": -3.1356287002563477,
      "683": 3.4550302028656006,
      "684": 2.536567449569702,
      "685": -9.402153015136719,
      "686": -1.3100529909133911,
      "687": 6.149642467498779,
      "688": 0.6979787945747375,
      "689": 3.450789213180542,
      "690": -3.191822052001953,
      "691": 0.5042691230773926,
      "692": 0.6953991055488586,
      "693": 0.6498493552207947,
      "694": -1.540728211402893,
      "695": -0.0024774251505732536,
      "696": -3.4769253730773926,
      "697": 1.1984282732009888,
      "698": 1.8387305736541748,
      "699": -5.381374359130859,
      "700": 1.0095077753067017,
      "701": -1.088289737701416,
      "702": 4.59454345703125,
      "703": 3.7096216678619385,
      "704": 3.5251479148864746,
      "705": 2.810985803604126,
      "706": -2.627631187438965,
      "707": 1.010452151298523,
      "708": -0.824408769607544,
      "709": 3.1825287342071533,
      "710": -1.7782652378082275,
      "711": 4.553819179534912,
      "712": 0.31920695304870605,
      "713": 19.606048583984375,
      "714": 7.863707065582275,
      "715": -1.8878568410873413,
      "716": 2.2578823566436768,
      "717": -7.047610759735107,
      "718": 3.0756454467773438,
      "719": 7.588708877563477,
      "720": 4.525574684143066,
      "721": 0.8108534812927246,
      "722": 5.4488725662231445,
      "723": 2.266103506088257,
      "724": -15.684184074401855,
      "725": -10.720789909362793,
      "726": 5.223680019378662,
      "727": -4.459227085113525,
      "728": -3.006699323654175,
      "729": 7.722002029418945,
      "730": 0.3662322461605072,
      "731": -4.991015911102295,
      "732": -3.791903257369995,
      "733": -2.2681705951690674,
      "734": -9.778385162353516,
      "735": 6.094486236572266,
      "736": -5.3750152587890625,
      "737": 1.4231590032577515,
      "738": 1.9554872512817383,
      "739": -3.787052869796753,
      "740": 8.05174732208252,
      "741": -1.7482069730758667,
      "742": -6.6549201011657715,
      "743": 8.789984703063965,
      "744": -1.2780568599700928,
      "745": -0.14948412775993347,
      "746": -4.346890926361084,
      "747": 5.649857997894287,
      "748": -9.015535354614258,
      "749": -0.0019116230541840196,
      "750": -0.029346222057938576,
      "751": -0.3554079234600067,
      "752": -3.056671142578125,
      "753": 4.811434745788574,
      "754": 1.7042864561080933,
      "755": -8.073487281799316,
      "756": 12.303528785705566,
      "757": 2.0152933597564697,
      "758": -3.9681763648986816,
      "759": -5.446822166442871,
      "760": 9.77953052520752,
      "761": 4.866250991821289,
      "762": -14.427117347717285,
      "763": 2.710430145263672,
      "764": 2.7139041423797607,
      "765": -10.811233520507812,
      "766": -10.910858154296875,
      "767": 2.3300421237945557,
      "768": 9.626036643981934,
      "769": -0.9191673994064331,
      "770": 3.3303470611572266,
      "771": 12.77259349822998,
      "772": 2.2080538272857666,
      "773": -1.8592877388000488,
      "774": 3.8866772651672363,
      "775": -10.34831428527832,
      "776": 4.630989074707031,
      "777": 4.118289470672607,
      "778": -4.572928428649902,
      "779": 6.229123115539551,
      "780": 2.48748779296875,
      "781": 6.656978130340576,
      "782": 8.973401069641113,
      "783": 4.527815818786621,
      "784": -0.009915485046803951,
      "785": -9.911808013916016,
      "786": 12.984053611755371,
      "787": -6.875152587890625,
      "788": -6.7166571617126465,
      "789": -10.676896095275879,
      "790": -14.139862060546875,
      "791": -6.183735370635986,
      "792": -0.8924855589866638,
      "793": 5.707629203796387,
      "794": -0.8771486282348633,
      "795": -8.881674766540527,
      "796": 4.975785732269287,
      "797": 8.524538040161133,
      "798": -2.552401065826416,
      "799": -11.38248062133789,
      "800": 3.5516159534454346,
      "801": 7.412806510925293,
      "802": -3.777918577194214,
      "803": 7.724154949188232,
      "804": 13.699767112731934,
      "805": -6.309653282165527,
      "806": 0.993438184261322,
      "807": -2.2734804153442383,
      "808": -0.5786038041114807,
      "809": 5.862723350524902,
      "810": -2.794954299926758,
      "811": -3.6152231693267822,
      "812": 1.3962234258651733,
      "813": -2.343768835067749,
      "814": -0.5680415034294128,
      "815": -0.19180548191070557,
      "816": 2.436422348022461,
      "817": -2.172215461730957,
      "818": 2.3746731281280518,
      "819": 5.879393100738525,
      "820": -3.641097068786621,
      "821": 0.3378998339176178,
      "822": 0.7923998832702637,
      "823": 0.5709604024887085,
      "824": -4.511935234069824,
      "825": 4.404157638549805,
      "826": 3.9668664932250977,
      "827": -2.5133252143859863,
      "828": -4.251748085021973,
      "829": 0.12113925814628601,
      "830": 2.1668038368225098,
      "831": 0.05721884220838547,
      "832": -1.973594307899475,
      "833": 8.875442504882812,
      "834": 2.1583096981048584,
      "835": -0.5103579759597778,
      "836": 1.4851163625717163,
      "837": 2.0055954456329346,
      "838": -0.8575927019119263,
      "839": -3.981447219848633,
      "840": -5.52543306350708,
      "841": 2.606996536254883,
      "842": 4.2478156089782715,
      "843": -13.706429481506348,
      "844": -7.149294376373291,
      "845": -16.120656967163086,
      "846": -8.92733097076416,
      "847": 6.667198657989502,
      "848": -3.9592127799987793,
      "849": 5.059365749359131,
      "850": 3.4529898166656494,
      "851": -6.422920227050781,
      "852": 20.652170181274414,
      "853": -2.6839468479156494,
      "854": 3.0755980014801025,
      "855": -5.198946475982666,
      "856": 10.687694549560547,
      "857": -5.26418924331665,
      "858": -0.33625075221061707,
      "859": -10.151451110839844,
      "860": 4.687817573547363,
      "861": -2.6374926567077637,
      "862": -2.4435043334960938,
      "863": -8.298616409301758,
      "864": 0.15940822660923004,
      "865": -1.215793251991272,
      "866": 5.35667085647583,
      "867": -2.0970003604888916,
      "868": 12.315726280212402,
      "869": -10.284341812133789,
      "870": -2.8148605823516846,
      "871": 11.825392723083496,
      "872": -2.323878765106201,
      "873": -13.626794815063477,
      "874": -1.8012566566467285,
      "875": -9.107583045959473,
      "876": 3.5114033222198486,
      "877": -1.9354164600372314,
      "878": -4.5611138343811035,
      "879": -17.85175132751465,
      "880": 9.842191696166992,
      "881": -4.838569641113281,
      "882": 0.4447563588619232,
      "883": -0.9895416498184204,
      "884": 3.7413299083709717,
      "885": 7.022743225097656,
      "886": -3.893754482269287,
      "887": 6.628304958343506,
      "888": -2.8424904346466064,
      "889": -5.8522210121154785,
      "890": -7.573756217956543,
      "891": 3.8271403312683105,
      "892": 8.213202476501465,
      "893": 3.580827474594116,
      "894": -0.34800875186920166,
      "895": -2.47560453414917,
      "896": -6.786890506744385,
      "897": -2.520667552947998,
      "898": 3.8082528114318848,
      "899": -0.16071251034736633,
      "900": -0.6870424151420593,
      "901": 1.1434096097946167,
      "902": -0.8982364535331726,
      "903": 1.810892939567566,
      "904": -2.8538026809692383,
      "905": -0.380219429731369,
      "906": 3.0743730068206787,
      "907": 0.837206244468689,
      "908": 1.6520761251449585,
      "909": 0.94928377866745,
      "910": -1.303774356842041,
      "911": -0.9292135238647461,
      "912": 0.10594164580106735,
      "913": 0.976775586605072,
      "914": 0.24515962600708008,
      "915": 1.4090235233306885,
      "916": -0.5894327759742737,
      "917": 0.5124537944793701,
      "918": -0.008547710254788399,
      "919": 0.9155148863792419,
      "920": -0.02746208757162094,
      "921": 1.280035138130188,
      "922": -0.5501062273979187,
      "923": 0.99649977684021,
      "924": 0.2871580123901367,
      "925": 0.43889662623405457,
      "926": -0.8219517469406128,
      "927": 0.9490517973899841,
      "928": -1.9079914093017578,
      "929": 0.4608869254589081,
      "930": -0.396422415971756,
      "931": 1.676787257194519,
      "932": 1.1171756982803345,
      "933": -1.0870039463043213,
      "934": 0.8675616383552551,
      "935": 2.5050911903381348,
      "936": 2.061091899871826,
      "937": 1.9463186264038086,
      "938": -0.07476847618818283,
      "939": -2.1611340045928955,
      "940": 1.1987032890319824,
      "941": 0.9490873217582703,
      "942": -1.3938970565795898,
      "943": 1.233991026878357,
      "944": 0.9867947101593018,
      "945": -0.8797558546066284,
      "946": -2.2291066646575928,
      "947": -0.4410382807254791,
      "948": -0.0372476726770401,
      "949": -1.442575454711914,
      "950": -1.4887151718139648,
      "951": 0.9298588633537292,
      "952": 3.079883098602295,
      "953": -0.4676264822483063,
      "954": -2.284166097640991,
      "955": -2.497783660888672,
      "956": -0.19765658676624298,
      "957": -1.0305918455123901,
      "958": -0.9322659969329834,
      "959": -1.3939411640167236,
      "960": -0.025742249563336372,
      "961": -0.024378955364227295,
      "962": 0.050620999187231064,
      "963": -0.06611684709787369,
      "964": -0.01850978285074234,
      "965": 0.053197093307971954,
      "966": 0.061111949384212494,
      "967": 0.04343784973025322,
      "968": 0.03871836140751839,
      "969": 0.05449153110384941,
      "970": 0.0723116546869278,
      "971": 0.027747467160224915,
      "972": -0.002096490003168583,
      "973": 0.03325206786394119,
      "974": 0.033999472856521606,
      "975": 0.05313647910952568,
      "976": 0.025033559650182724,
      "977": -0.04631824791431427,
      "978": 0.056278858333826065,
      "979": 0.020394358783960342,
      "980": 0.035106029361486435,
      "981": -0.062268082052469254,
      "982": 0.031317900866270065,
      "983": 0.015554732643067837,
      "984": -0.02752726338803768,
      "985": 0.01596056856215,
      "986": 0.0686006024479866,
      "987": 0.06929312646389008,
      "988": 0.05986662209033966,
      "989": -0.041924603283405304,
      "990": -0.05860815569758415,
      "991": -0.02225218154489994
    }
  },
  "hiddenLayers": [
    {
      "inputMatrix": {
        "rows": 20,
        "columns": 31,
        "weights": {
          "0": -0.49587491154670715,
          "1": -0.14215785264968872,
          "2": -0.023561570793390274,
          "3": 1.8984276056289673,
          "4": 0.7227391004562378,
          "5": -2.7026007175445557,
          "6": -2.5494699478149414,
          "7": -0.566271960735321,
          "8": 0.367678165435791,
          "9": -0.6459725499153137,
          "10": -0.7174579501152039,
          "11": -0.027881067246198654,
          "12": 2.4777867794036865,
          "13": 0.5426294803619385,
          "14": 0.10146751999855042,
          "15": 1.128784418106079,
          "16": -0.7322297096252441,
          "17": 1.1637887954711914,
          "18": -0.5959666967391968,
          "19": 0.4505176842212677,
          "20": 2.059364080429077,
          "21": 0.35082852840423584,
          "22": -2.2297794818878174,
          "23": 0.6421740651130676,
          "24": 1.4650776386260986,
          "25": -0.7114810347557068,
          "26": -0.18839505314826965,
          "27": 1.2277929782867432,
          "28": -0.9770335555076599,
          "29": -1.3489537239074707,
          "30": 0.4605419337749481,
          "31": -1.4838244915008545,
          "32": -0.45859673619270325,
          "33": 1.5168160200119019,
          "34": -2.517815351486206,
          "35": 1.159403681755066,
          "36": -0.31054961681365967,
          "37": 1.6290398836135864,
          "38": 0.956407368183136,
          "39": -1.1146899461746216,
          "40": 0.05219069868326187,
          "41": 0.4225080609321594,
          "42": 1.3194323778152466,
          "43": 0.4917040467262268,
          "44": -0.7008159160614014,
          "45": 2.0001237392425537,
          "46": 0.6507788300514221,
          "47": -1.4293007850646973,
          "48": -1.2805267572402954,
          "49": 0.9218398332595825,
          "50": -2.28989315032959,
          "51": -0.2984631359577179,
          "52": 0.18034568428993225,
          "53": 0.9656559228897095,
          "54": 0.19503387808799744,
          "55": 0.9836621880531311,
          "56": -0.3453068733215332,
          "57": 1.9988607168197632,
          "58": -2.781439781188965,
          "59": 2.8130898475646973,
          "60": 0.5320475697517395,
          "61": -2.3281986713409424,
          "62": 0.649197518825531,
          "63": -0.8472693562507629,
          "64": 3.155364751815796,
          "65": -1.3336912393569946,
          "66": -1.3296667337417603,
          "67": -0.0054571847431361675,
          "68": 0.7263137698173523,
          "69": -1.1128814220428467,
          "70": 0.03838150575757027,
          "71": 0.6166845560073853,
          "72": 0.3413720726966858,
          "73": -0.6089198589324951,
          "74": 0.45870906114578247,
          "75": 0.044668782502412796,
          "76": -2.2556440830230713,
          "77": -1.800797462463379,
          "78": -0.5263634920120239,
          "79": -2.1987783908843994,
          "80": -1.1703611612319946,
          "81": 0.31369301676750183,
          "82": -0.14229997992515564,
          "83": 0.07471053302288055,
          "84": 0.794135332107544,
          "85": -0.7330626249313354,
          "86": -1.6363886594772339,
          "87": -3.3428525924682617,
          "88": -0.7218245267868042,
          "89": 0.6370905637741089,
          "90": -2.6897430419921875,
          "91": 1.5668628215789795,
          "92": -0.3285788893699646,
          "93": 0.6648634672164917,
          "94": -0.2662181556224823,
          "95": 0.33834943175315857,
          "96": -2.266977310180664,
          "97": -3.6686012744903564,
          "98": 0.14403842389583588,
          "99": 1.552221655845642,
          "100": 0.4201829135417938,
          "101": -0.8519919514656067,
          "102": 2.540350914001465,
          "103": 1.5733792781829834,
          "104": -1.4568802118301392,
          "105": 0.3771570026874542,
          "106": 0.46684563159942627,
          "107": -0.009875543415546417,
          "108": 1.3984401226043701,
          "109": 3.2304112911224365,
          "110": -0.19575384259223938,
          "111": -0.8216824531555176,
          "112": 3.5948617458343506,
          "113": 2.4369192123413086,
          "114": -2.2243010997772217,
          "115": 1.0672526359558105,
          "116": -0.7292339205741882,
          "117": -0.2303498536348343,
          "118": 0.35431012511253357,
          "119": -0.807493269443512,
          "120": 3.3368260860443115,
          "121": -3.0758402347564697,
          "122": -2.3448143005371094,
          "123": 5.4865875244140625,
          "124": 0.398945152759552,
          "125": -0.8704617023468018,
          "126": -0.9343403577804565,
          "127": 0.48961445689201355,
          "128": -1.2844611406326294,
          "129": -1.8322277069091797,
          "130": 0.4652348756790161,
          "131": -0.3212733566761017,
          "132": 0.931824266910553,
          "133": 2.224419116973877,
          "134": -1.7444953918457031,
          "135": -1.42237389087677,
          "136": 1.0583738088607788,
          "137": 0.1142568588256836,
          "138": 0.6147657036781311,
          "139": -0.2921190559864044,
          "140": 1.3783913850784302,
          "141": 1.03549063205719,
          "142": -0.5236083269119263,
          "143": 0.4039251506328583,
          "144": 0.4913327693939209,
          "145": -2.253089427947998,
          "146": -1.420284390449524,
          "147": -0.338160902261734,
          "148": 2.6264736652374268,
          "149": 1.1264715194702148,
          "150": 0.5531196594238281,
          "151": 0.7316875457763672,
          "152": 0.19957958161830902,
          "153": -2.32724928855896,
          "154": 0.3878176510334015,
          "155": -0.09634846448898315,
          "156": 1.5356271266937256,
          "157": 0.004212169907987118,
          "158": -0.8169587850570679,
          "159": 2.2856996059417725,
          "160": -0.6802721619606018,
          "161": 0.8132225871086121,
          "162": 2.5679447650909424,
          "163": 0.7421620488166809,
          "164": -0.725811243057251,
          "165": 0.3682693541049957,
          "166": -0.2877591848373413,
          "167": -1.5922532081604004,
          "168": 0.9707160592079163,
          "169": 0.10335177183151245,
          "170": -0.1821293979883194,
          "171": -1.5892136096954346,
          "172": 0.9163554906845093,
          "173": -0.3807794749736786,
          "174": -1.2331476211547852,
          "175": 0.39551693201065063,
          "176": 2.5261471271514893,
          "177": 1.793950080871582,
          "178": -0.3390790820121765,
          "179": -1.5197539329528809,
          "180": -0.5872864723205566,
          "181": 2.1277413368225098,
          "182": -1.0108187198638916,
          "183": 0.16517262160778046,
          "184": 0.3415012061595917,
          "185": -0.29113373160362244,
          "186": -0.7872073650360107,
          "187": 0.5959358215332031,
          "188": 0.027729887515306473,
          "189": -2.1143414974212646,
          "190": -0.815289318561554,
          "191": 1.7739721536636353,
          "192": 0.3430858850479126,
          "193": 1.3956595659255981,
          "194": -0.17982062697410583,
          "195": -1.0859254598617554,
          "196": 0.8854362368583679,
          "197": -0.7977014780044556,
          "198": -1.8135136365890503,
          "199": 0.4767952263355255,
          "200": -2.220720052719116,
          "201": -0.8276343941688538,
          "202": -0.28288519382476807,
          "203": 1.2531079053878784,
          "204": -0.1301809400320053,
          "205": 0.17449016869068146,
          "206": 0.6653206944465637,
          "207": -0.8966996073722839,
          "208": 1.4771709442138672,
          "209": -0.06478682905435562,
          "210": -1.89479660987854,
          "211": -1.0263999700546265,
          "212": -1.02519690990448,
          "213": 0.563593327999115,
          "214": 1.6766104698181152,
          "215": 2.0257184505462646,
          "216": -1.0292401313781738,
          "217": 0.45731639862060547,
          "218": 0.13113997876644135,
          "219": 0.4093789756298065,
          "220": -2.138611078262329,
          "221": -2.2700934410095215,
          "222": 3.7916314601898193,
          "223": 1.3070682287216187,
          "224": 0.7193037867546082,
          "225": -2.231088876724243,
          "226": 1.06679105758667,
          "227": -1.0464993715286255,
          "228": -1.2633767127990723,
          "229": -1.0222612619400024,
          "230": -3.5379858016967773,
          "231": -2.2909908294677734,
          "232": -0.05508480221033096,
          "233": 0.5131116509437561,
          "234": -0.5700886249542236,
          "235": -0.6612971425056458,
          "236": 0.5687329769134521,
          "237": 0.5282367467880249,
          "238": 0.29882121086120605,
          "239": 0.8605124950408936,
          "240": -0.1355748325586319,
          "241": -2.957611560821533,
          "242": -1.828253984451294,
          "243": 1.4618196487426758,
          "244": 1.5262370109558105,
          "245": 1.1213793754577637,
          "246": 0.7250806093215942,
          "247": -0.9348258376121521,
          "248": -0.6104565262794495,
          "249": 0.49878495931625366,
          "250": 1.3806092739105225,
          "251": -1.3827602863311768,
          "252": 1.3600610494613647,
          "253": -0.13155226409435272,
          "254": -1.67586350440979,
          "255": 0.1701270341873169,
          "256": 1.1986004114151,
          "257": -1.7145391702651978,
          "258": -0.6731703281402588,
          "259": 0.41605451703071594,
          "260": -2.1810076236724854,
          "261": 0.7795937657356262,
          "262": -2.07112455368042,
          "263": -0.5472574234008789,
          "264": -1.4672770500183105,
          "265": 1.0346029996871948,
          "266": 0.5866873264312744,
          "267": 1.1528719663619995,
          "268": 0.6663064956665039,
          "269": 0.5102882385253906,
          "270": 0.6700374484062195,
          "271": -0.4405063986778259,
          "272": -1.4378318786621094,
          "273": -1.3271185159683228,
          "274": -0.21703515946865082,
          "275": -0.42603540420532227,
          "276": -0.3792537450790405,
          "277": 2.2230310440063477,
          "278": -0.6247446537017822,
          "279": 0.2730475962162018,
          "280": -0.9418348073959351,
          "281": -0.12972486019134521,
          "282": -3.2986037731170654,
          "283": 1.386049509048462,
          "284": 0.8383627533912659,
          "285": -0.12782606482505798,
          "286": 1.6779296398162842,
          "287": -0.7652509808540344,
          "288": 0.5599418878555298,
          "289": -0.8482688665390015,
          "290": 0.17435787618160248,
          "291": -1.9041390419006348,
          "292": 1.6023118495941162,
          "293": -0.34837520122528076,
          "294": 1.6031183004379272,
          "295": -1.4569261074066162,
          "296": 0.19681139290332794,
          "297": -0.8970472812652588,
          "298": -0.15970078110694885,
          "299": 1.0155062675476074,
          "300": 2.908552408218384,
          "301": 3.449937105178833,
          "302": 0.10595808923244476,
          "303": -1.6237465143203735,
          "304": -1.3273307085037231,
          "305": -0.6369561553001404,
          "306": -0.8516014218330383,
          "307": -0.633851170539856,
          "308": -1.0648527145385742,
          "309": 0.5502389669418335,
          "310": -0.16198308765888214,
          "311": 0.7152501344680786,
          "312": -0.7264485359191895,
          "313": 2.5011343955993652,
          "314": -0.8887154459953308,
          "315": -2.264049768447876,
          "316": -0.30188050866127014,
          "317": -1.270867109298706,
          "318": -0.18752159178256989,
          "319": -0.22116702795028687,
          "320": 0.4549771845340729,
          "321": -0.5963430404663086,
          "322": 2.5082504749298096,
          "323": -0.3064687252044678,
          "324": 0.6780199408531189,
          "325": -0.3205695152282715,
          "326": -0.21952271461486816,
          "327": 0.09000300616025925,
          "328": -0.5287290215492249,
          "329": -0.9327800273895264,
          "330": -0.021415719762444496,
          "331": -0.03491096943616867,
          "332": -3.83839750289917,
          "333": 1.5552499294281006,
          "334": 0.023845896124839783,
          "335": 0.4481502175331116,
          "336": 0.2894068658351898,
          "337": 0.7468642592430115,
          "338": 0.1143694594502449,
          "339": 0.3679015040397644,
          "340": 0.13351628184318542,
          "341": 1.5781643390655518,
          "342": -1.1732327938079834,
          "343": 0.4350830316543579,
          "344": 1.1852140426635742,
          "345": 0.05022992938756943,
          "346": -1.3990485668182373,
          "347": 0.3896504044532776,
          "348": 0.8740332722663879,
          "349": 1.856127142906189,
          "350": 0.3492451012134552,
          "351": -0.012227814644575119,
          "352": -1.5478335618972778,
          "353": -0.5066425204277039,
          "354": 0.7417641282081604,
          "355": 0.8241526484489441,
          "356": -1.3966144323349,
          "357": -0.24798625707626343,
          "358": -1.233178973197937,
          "359": -1.024489164352417,
          "360": -0.1413847655057907,
          "361": 0.10210512578487396,
          "362": -0.8297218680381775,
          "363": 0.14478585124015808,
          "364": -0.44949331879615784,
          "365": 0.22555868327617645,
          "366": -0.05428984761238098,
          "367": 0.9780189990997314,
          "368": 0.4884774088859558,
          "369": -0.5345396995544434,
          "370": -0.259037047624588,
          "371": 2.207028388977051,
          "372": 0.7929636836051941,
          "373": -0.43803176283836365,
          "374": 1.0149354934692383,
          "375": -1.6467691659927368,
          "376": 1.290701985359192,
          "377": 1.0091561079025269,
          "378": 1.2878332138061523,
          "379": 1.2740975618362427,
          "380": -0.4171527922153473,
          "381": 0.1439226120710373,
          "382": -0.27819594740867615,
          "383": -0.5118096470832825,
          "384": -2.447916269302368,
          "385": 0.07690256088972092,
          "386": 0.35456687211990356,
          "387": -0.47016769647598267,
          "388": -0.05264853313565254,
          "389": -0.1833348572254181,
          "390": 0.46449533104896545,
          "391": 0.6919044256210327,
          "392": 0.142617866396904,
          "393": 0.20890171825885773,
          "394": 2.836803674697876,
          "395": -2.135098934173584,
          "396": -2.3078019618988037,
          "397": -0.9104883670806885,
          "398": -1.2488434314727783,
          "399": -0.32344791293144226,
          "400": 0.7079012393951416,
          "401": 0.017443163320422173,
          "402": -0.9668297171592712,
          "403": -0.9169085025787354,
          "404": 0.16555030643939972,
          "405": -1.27133047580719,
          "406": -2.0745441913604736,
          "407": 0.15410739183425903,
          "408": 2.256481409072876,
          "409": -1.9775168895721436,
          "410": -0.5038335919380188,
          "411": -0.15892891585826874,
          "412": -1.65718412399292,
          "413": 0.10518902540206909,
          "414": 1.5521937608718872,
          "415": -1.919623613357544,
          "416": 1.0034754276275635,
          "417": -2.3719284534454346,
          "418": 0.12496186792850494,
          "419": -2.3687937259674072,
          "420": 1.6154536008834839,
          "421": 0.3876468241214752,
          "422": -0.9824855327606201,
          "423": -0.31849947571754456,
          "424": 2.635566234588623,
          "425": 0.2693183422088623,
          "426": 2.980747699737549,
          "427": -1.9961495399475098,
          "428": 0.670159637928009,
          "429": 0.17865996062755585,
          "430": 0.36365175247192383,
          "431": 0.45341381430625916,
          "432": 2.255398750305176,
          "433": -1.7485758066177368,
          "434": -1.039176106452942,
          "435": 3.2109599113464355,
          "436": 0.6614517569541931,
          "437": -0.45017266273498535,
          "438": -0.2798970639705658,
          "439": 2.0925354957580566,
          "440": 1.2744895219802856,
          "441": 3.2483692169189453,
          "442": -0.6155182123184204,
          "443": 1.3419322967529297,
          "444": 2.037006378173828,
          "445": 2.338566303253174,
          "446": -0.006768062710762024,
          "447": 1.7905611991882324,
          "448": 0.10959363728761673,
          "449": -0.5692893862724304,
          "450": -0.7713279128074646,
          "451": -0.09425293654203415,
          "452": -1.3063011169433594,
          "453": -0.8768033981323242,
          "454": 3.6003530025482178,
          "455": 2.5266950130462646,
          "456": -0.05806899815797806,
          "457": 1.2254124879837036,
          "458": -3.4256324768066406,
          "459": -1.4656269550323486,
          "460": 1.075527548789978,
          "461": 3.5112111568450928,
          "462": -2.9152417182922363,
          "463": -0.3470076322555542,
          "464": 2.7232065200805664,
          "465": -1.5374268293380737,
          "466": -0.2950616478919983,
          "467": 0.4452151656150818,
          "468": 0.12091783434152603,
          "469": 1.6365034580230713,
          "470": 0.3833891749382019,
          "471": -0.6889904737472534,
          "472": 0.5793859958648682,
          "473": 1.5479660034179688,
          "474": -1.5244879722595215,
          "475": -0.9147334098815918,
          "476": 0.056653156876564026,
          "477": -0.8993867635726929,
          "478": -0.7198610901832581,
          "479": 0.17465288937091827,
          "480": -0.6799373030662537,
          "481": -2.295081377029419,
          "482": -0.34565773606300354,
          "483": 0.562975287437439,
          "484": -1.1006017923355103,
          "485": -1.330323338508606,
          "486": 2.8032033443450928,
          "487": 0.5950085520744324,
          "488": -0.7647399306297302,
          "489": -0.6245014667510986,
          "490": -0.6082866787910461,
          "491": 0.20431478321552277,
          "492": -2.0558922290802,
          "493": -0.3499922454357147,
          "494": 0.9210750460624695,
          "495": -1.277940273284912,
          "496": 0.041315220296382904,
          "497": 0.9383872151374817,
          "498": -0.3727889358997345,
          "499": 0.5240030288696289,
          "500": -1.0777173042297363,
          "501": -1.2590975761413574,
          "502": -0.6859896183013916,
          "503": 2.2409918308258057,
          "504": -0.07844360917806625,
          "505": 0.3164990246295929,
          "506": 2.510005235671997,
          "507": -1.311305046081543,
          "508": -1.7693519592285156,
          "509": 1.7954038381576538,
          "510": 0.09592033922672272,
          "511": 0.25321143865585327,
          "512": -1.026249647140503,
          "513": 1.2631618976593018,
          "514": -1.1292701959609985,
          "515": -0.7700008749961853,
          "516": 2.9298813343048096,
          "517": 1.2269034385681152,
          "518": -0.0968872532248497,
          "519": 0.664972722530365,
          "520": -1.058234691619873,
          "521": -1.9843318462371826,
          "522": -2.1358413696289062,
          "523": 1.2075718641281128,
          "524": -1.4719963073730469,
          "525": -0.8962918519973755,
          "526": 2.2589304447174072,
          "527": 2.954023838043213,
          "528": -2.822477340698242,
          "529": -0.7559827566146851,
          "530": 0.6880187392234802,
          "531": -1.2559192180633545,
          "532": 0.473088800907135,
          "533": -0.30596378445625305,
          "534": -1.508398413658142,
          "535": -1.015051245689392,
          "536": 1.7817885875701904,
          "537": 0.3801785707473755,
          "538": -4.179213523864746,
          "539": -0.7382623553276062,
          "540": -0.09407328069210052,
          "541": 0.7292819023132324,
          "542": 0.4476052522659302,
          "543": 1.4389190673828125,
          "544": 0.8752427697181702,
          "545": -1.8085120916366577,
          "546": 3.3653438091278076,
          "547": 0.3573342263698578,
          "548": -1.498154640197754,
          "549": 0.2934976816177368,
          "550": -1.9873721599578857,
          "551": -0.32598555088043213,
          "552": -1.8523809909820557,
          "553": -1.290976643562317,
          "554": 0.599540114402771,
          "555": 0.42888927459716797,
          "556": -0.384825736284256,
          "557": 0.0564996711909771,
          "558": 1.586854100227356,
          "559": -2.408501148223877,
          "560": 1.3639642000198364,
          "561": 2.2354681491851807,
          "562": -1.3412779569625854,
          "563": 0.2547338902950287,
          "564": 1.6135891675949097,
          "565": -2.101439952850342,
          "566": -0.0816955715417862,
          "567": 0.43346068263053894,
          "568": -1.7977386713027954,
          "569": -0.13329128921031952,
          "570": 0.7187380194664001,
          "571": 0.7863131165504456,
          "572": -1.3398487567901611,
          "573": -1.7750502824783325,
          "574": 0.29827097058296204,
          "575": -0.09140334278345108,
          "576": -2.652453899383545,
          "577": 0.7138263583183289,
          "578": 0.5664801001548767,
          "579": -0.9163228273391724,
          "580": -1.2129703760147095,
          "581": -1.713685154914856,
          "582": -1.8536583185195923,
          "583": -3.711512327194214,
          "584": 0.9730023741722107,
          "585": 1.2011479139328003,
          "586": -2.751953363418579,
          "587": 0.9795915484428406,
          "588": 1.7597347497940063,
          "589": 2.3567497730255127,
          "590": -1.4300247430801392,
          "591": -0.08881048113107681,
          "592": 0.20555710792541504,
          "593": 0.17964962124824524,
          "594": -0.8028906583786011,
          "595": -0.8865122199058533,
          "596": -4.524837493896484,
          "597": -2.284198045730591,
          "598": 1.0998950004577637,
          "599": 0.5306706428527832,
          "600": -1.1962772607803345,
          "601": -0.3996621072292328,
          "602": 1.066750168800354,
          "603": 0.758320152759552,
          "604": 0.49341830611228943,
          "605": -0.1512191891670227,
          "606": 0.5111631751060486,
          "607": 0.6412808299064636,
          "608": 0.41561996936798096,
          "609": 0.783986508846283,
          "610": -0.4188181459903717,
          "611": -0.7526466250419617,
          "612": 0.8155319094657898,
          "613": 0.5574675798416138,
          "614": -0.8540876507759094,
          "615": -4.050756931304932,
          "616": -0.2526508569717407,
          "617": -1.701714277267456,
          "618": 0.2112065553665161,
          "619": -1.1044425964355469
        }
      },
      "inputHidden": {
        "rows": 20,
        "columns": 20,
        "weights": {
          "0": -1.2736088037490845,
          "1": -1.5350679159164429,
          "2": -1.8625057935714722,
          "3": 1.7818459272384644,
          "4": -2.2597830295562744,
          "5": 4.620672702789307,
          "6": 0.6061229705810547,
          "7": -3.0888381004333496,
          "8": -3.8013272285461426,
          "9": 1.5351850986480713,
          "10": -0.053558796644210815,
          "11": -3.0957014560699463,
          "12": 1.626881718635559,
          "13": -2.2431252002716064,
          "14": 1.678722620010376,
          "15": 3.5005154609680176,
          "16": -3.626683235168457,
          "17": -0.9430629014968872,
          "18": 0.5344036817550659,
          "19": -0.2367977499961853,
          "20": 3.71094012260437,
          "21": 3.042599678039551,
          "22": 1.4521888494491577,
          "23": 3.295635461807251,
          "24": -1.0608738660812378,
          "25": -1.7247518301010132,
          "26": -1.3199992179870605,
          "27": 1.7501393556594849,
          "28": -0.6729111671447754,
          "29": -3.0793659687042236,
          "30": -0.36067163944244385,
          "31": 0.6609532237052917,
          "32": -2.225518226623535,
          "33": -0.9660164713859558,
          "34": -2.4832446575164795,
          "35": -1.4672284126281738,
          "36": -0.9820661544799805,
          "37": 0.5574871301651001,
          "38": 1.4725685119628906,
          "39": 0.9012120962142944,
          "40": 2.5666468143463135,
          "41": 0.6548542976379395,
          "42": 2.91945743560791,
          "43": 0.6130900382995605,
          "44": 2.1726438999176025,
          "45": -1.0735559463500977,
          "46": 1.9897316694259644,
          "47": 4.071437835693359,
          "48": 4.55449104309082,
          "49": 3.578930139541626,
          "50": -1.5229789018630981,
          "51": 1.3394972085952759,
          "52": 1.1826854944229126,
          "53": 3.3344740867614746,
          "54": 2.2758636474609375,
          "55": 0.09520122408866882,
          "56": -1.117112159729004,
          "57": -0.3971692621707916,
          "58": -1.906722068786621,
          "59": 3.5536835193634033,
          "60": -1.5247188806533813,
          "61": -0.03701096773147583,
          "62": 2.3416707515716553,
          "63": 0.14553992450237274,
          "64": 0.4369630217552185,
          "65": 1.0364431142807007,
          "66": -0.051802512258291245,
          "67": 1.1962380409240723,
          "68": 0.6836056113243103,
          "69": 1.1152634620666504,
          "70": 0.32040587067604065,
          "71": -0.148241326212883,
          "72": -0.04814106225967407,
          "73": 0.7755314707756042,
          "74": 1.276636004447937,
          "75": -2.2798991203308105,
          "76": -0.4878075420856476,
          "77": -0.7396658658981323,
          "78": 1.0543808937072754,
          "79": 1.3156059980392456,
          "80": 3.9251370429992676,
          "81": -2.277083158493042,
          "82": -2.8834824562072754,
          "83": 2.9559128284454346,
          "84": -1.714579701423645,
          "85": 0.8470384478569031,
          "86": 0.6987408399581909,
          "87": -1.3985706567764282,
          "88": -4.176763534545898,
          "89": 4.815816879272461,
          "90": 3.004340171813965,
          "91": -4.321175575256348,
          "92": 1.4557783603668213,
          "93": 0.007824679836630821,
          "94": 0.06260327994823456,
          "95": 2.1732890605926514,
          "96": -4.217583656311035,
          "97": 1.4774950742721558,
          "98": -1.1669453382492065,
          "99": 2.289030075073242,
          "100": -0.795828640460968,
          "101": 1.8685623407363892,
          "102": -3.6868691444396973,
          "103": -1.500590443611145,
          "104": 2.6845641136169434,
          "105": -1.6393486261367798,
          "106": -1.1711069345474243,
          "107": -1.3118189573287964,
          "108": -1.2595577239990234,
          "109": 0.21962283551692963,
          "110": -2.788374185562134,
          "111": -1.760160207748413,
          "112": 1.2232725620269775,
          "113": -3.198031187057495,
          "114": -2.261613130569458,
          "115": -1.4709810018539429,
          "116": -4.350172519683838,
          "117": -3.59675669670105,
          "118": -4.934713363647461,
          "119": 2.4271607398986816,
          "120": 2.274744749069214,
          "121": -0.9961884617805481,
          "122": -3.1224918365478516,
          "123": -0.15679462254047394,
          "124": 3.1403939723968506,
          "125": -1.5938775539398193,
          "126": -1.5024017095565796,
          "127": -0.8357802629470825,
          "128": -1.1215941905975342,
          "129": -0.38310328125953674,
          "130": -3.014922857284546,
          "131": -1.187713623046875,
          "132": 0.09637710452079773,
          "133": -1.839294672012329,
          "134": -1.884894609451294,
          "135": -0.5194932222366333,
          "136": -2.2136435508728027,
          "137": -3.2668991088867188,
          "138": -2.8195197582244873,
          "139": 0.36322805285453796,
          "140": 0.48645734786987305,
          "141": -0.7233585715293884,
          "142": -1.4100782871246338,
          "143": 1.462666630744934,
          "144": 2.632716178894043,
          "145": -2.217231035232544,
          "146": -1.1626522541046143,
          "147": -0.44315147399902344,
          "148": 2.8954713344573975,
          "149": 0.01262097992002964,
          "150": 0.6033874750137329,
          "151": 1.9246158599853516,
          "152": 1.604607105255127,
          "153": -0.37460824847221375,
          "154": -0.10053954273462296,
          "155": -0.08430233597755432,
          "156": 0.6875227689743042,
          "157": -2.5937600135803223,
          "158": -2.6898701190948486,
          "159": 2.22273850440979,
          "160": -1.1922904253005981,
          "161": 2.405470132827759,
          "162": 0.06596340239048004,
          "163": -2.517254590988159,
          "164": 2.244748115539551,
          "165": 3.0608465671539307,
          "166": 1.92332923412323,
          "167": 0.31705334782600403,
          "168": 0.9966012835502625,
          "169": 0.969103991985321,
          "170": -1.2247217893600464,
          "171": 0.678754448890686,
          "172": -0.26714420318603516,
          "173": 5.712376594543457,
          "174": 1.7646197080612183,
          "175": 3.9551949501037598,
          "176": 2.854259967803955,
          "177": 0.5669779777526855,
          "178": 2.2878475189208984,
          "179": -2.080113410949707,
          "180": 0.8869016766548157,
          "181": -1.5342029333114624,
          "182": 1.2805721759796143,
          "183": 2.912543773651123,
          "184": -1.2159359455108643,
          "185": 0.6269887089729309,
          "186": 0.7198910117149353,
          "187": -2.1990275382995605,
          "188": -1.1084916591644287,
          "189": 1.7256617546081543,
          "190": -0.8023926019668579,
          "191": -1.6957966089248657,
          "192": -0.299589604139328,
          "193": -1.8797712326049805,
          "194": -0.4064984619617462,
          "195": -0.876044750213623,
          "196": -0.301025927066803,
          "197": 1.7057842016220093,
          "198": 0.8841190338134766,
          "199": 1.0470683574676514,
          "200": 1.0965895652770996,
          "201": 0.2512670159339905,
          "202": -0.6377706527709961,
          "203": -1.0170265436172485,
          "204": 0.4839401841163635,
          "205": 3.3387317657470703,
          "206": 4.561057090759277,
          "207": 2.3967981338500977,
          "208": 0.8005045652389526,
          "209": 5.138666152954102,
          "210": -0.17565453052520752,
          "211": -1.8140825033187866,
          "212": 0.22886230051517487,
          "213": 2.3427486419677734,
          "214": -0.9426127076148987,
          "215": 1.3512846231460571,
          "216": -1.3281452655792236,
          "217": -1.7930351495742798,
          "218": -0.02083463780581951,
          "219": -0.5424023866653442,
          "220": -0.540010929107666,
          "221": 3.064284086227417,
          "222": -5.564522743225098,
          "223": -0.357663631439209,
          "224": -5.326019287109375,
          "225": 2.9701287746429443,
          "226": -0.6600502729415894,
          "227": -1.6117751598358154,
          "228": 1.5986078977584839,
          "229": -1.2187353372573853,
          "230": -1.4801946878433228,
          "231": 0.4052298069000244,
          "232": 6.827441215515137,
          "233": 3.4993736743927,
          "234": 0.2247672826051712,
          "235": 3.8137810230255127,
          "236": 1.657446026802063,
          "237": 2.3683745861053467,
          "238": 1.774437427520752,
          "239": -2.4931674003601074,
          "240": 1.8482706546783447,
          "241": 1.816587209701538,
          "242": 0.6053003668785095,
          "243": 5.578929424285889,
          "244": 1.4951685667037964,
          "245": -1.817996621131897,
          "246": 2.6056392192840576,
          "247": 2.24788761138916,
          "248": 4.669724941253662,
          "249": 1.2930355072021484,
          "250": 1.220625877380371,
          "251": -0.7056935429573059,
          "252": 2.31072735786438,
          "253": 6.1927170753479,
          "254": -0.3517259657382965,
          "255": -0.7723360061645508,
          "256": 0.5167081952095032,
          "257": 3.4013378620147705,
          "258": 1.812544584274292,
          "259": 1.3276845216751099,
          "260": -1.8291001319885254,
          "261": -0.0492214672267437,
          "262": -1.0501130819320679,
          "263": -0.7652537226676941,
          "264": 0.22369284927845,
          "265": -0.775774359703064,
          "266": 2.552489995956421,
          "267": 0.1570044904947281,
          "268": -0.8540264368057251,
          "269": 0.6794620752334595,
          "270": 0.6582727432250977,
          "271": 0.33138683438301086,
          "272": -0.2844964265823364,
          "273": 0.08844547718763351,
          "274": 1.1591414213180542,
          "275": 0.9043499827384949,
          "276": -1.0492701530456543,
          "277": -0.4016484320163727,
          "278": -0.6384015679359436,
          "279": -0.28124338388442993,
          "280": 1.6820536851882935,
          "281": 2.1111724376678467,
          "282": 1.2085219621658325,
          "283": 1.6949355602264404,
          "284": -1.4764578342437744,
          "285": -0.3423923850059509,
          "286": -1.4123749732971191,
          "287": -1.79434072971344,
          "288": -0.9583305716514587,
          "289": 0.9847099781036377,
          "290": -0.18208429217338562,
          "291": -0.5654640793800354,
          "292": -2.673771858215332,
          "293": -1.6313666105270386,
          "294": -1.2259836196899414,
          "295": -0.6919235587120056,
          "296": -1.8003917932510376,
          "297": -0.7218806743621826,
          "298": -0.937641441822052,
          "299": 0.9148139357566833,
          "300": -0.3391002118587494,
          "301": -5.037815093994141,
          "302": -2.9715352058410645,
          "303": 0.29871228337287903,
          "304": 0.43576860427856445,
          "305": -2.0267984867095947,
          "306": -2.9782936573028564,
          "307": -0.9779890179634094,
          "308": 4.3053202629089355,
          "309": -4.815430164337158,
          "310": -0.5490279197692871,
          "311": -2.843773603439331,
          "312": 3.262024164199829,
          "313": 0.6214724183082581,
          "314": -3.5183889865875244,
          "315": -0.8830588459968567,
          "316": -0.5419521927833557,
          "317": -2.469172239303589,
          "318": -0.9558911323547363,
          "319": -0.8458777666091919,
          "320": 0.5965624451637268,
          "321": 0.21317647397518158,
          "322": 0.4152301251888275,
          "323": 1.564400553703308,
          "324": 1.9659132957458496,
          "325": -1.2377033233642578,
          "326": 1.0748790502548218,
          "327": 1.5540472269058228,
          "328": 2.752974510192871,
          "329": 2.668175458908081,
          "330": -0.3257075548171997,
          "331": -1.5804296731948853,
          "332": 2.491529703140259,
          "333": 4.125308513641357,
          "334": -0.16806942224502563,
          "335": 0.4513683319091797,
          "336": 0.15567997097969055,
          "337": -0.8951793313026428,
          "338": -2.0843563079833984,
          "339": -1.9217604398727417,
          "340": 2.5981903076171875,
          "341": -4.480520725250244,
          "342": 3.7314274311065674,
          "343": 1.2872639894485474,
          "344": 0.20053628087043762,
          "345": 1.816843867301941,
          "346": 0.8728901743888855,
          "347": 2.323099136352539,
          "348": 2.1353631019592285,
          "349": 1.7618184089660645,
          "350": 1.7325671911239624,
          "351": -2.407097101211548,
          "352": -2.9577951431274414,
          "353": -0.17302431166172028,
          "354": -0.9353485107421875,
          "355": -1.4310821294784546,
          "356": -0.10097020864486694,
          "357": 2.83347749710083,
          "358": 0.33105623722076416,
          "359": 2.0328660011291504,
          "360": 2.056570053100586,
          "361": -1.3576489686965942,
          "362": -1.2185150384902954,
          "363": 2.861179828643799,
          "364": 2.0727577209472656,
          "365": -3.3033652305603027,
          "366": 1.6366139650344849,
          "367": -1.87118399143219,
          "368": -1.0298880338668823,
          "369": 2.8143317699432373,
          "370": -0.3482986092567444,
          "371": -1.145240068435669,
          "372": 1.0648146867752075,
          "373": -3.5030860900878906,
          "374": -1.4273056983947754,
          "375": -1.7089945077896118,
          "376": -1.749673843383789,
          "377": 1.2669402360916138,
          "378": -0.5291373133659363,
          "379": 4.317855358123779,
          "380": 2.0988833904266357,
          "381": 0.8783353567123413,
          "382": 1.967540979385376,
          "383": 3.5789759159088135,
          "384": -1.9654768705368042,
          "385": -1.9392062425613403,
          "386": -1.374065637588501,
          "387": -1.1098157167434692,
          "388": 0.3726176619529724,
          "389": -2.6269991397857666,
          "390": 1.5169847011566162,
          "391": -0.1553555130958557,
          "392": -0.1516730636358261,
          "393": -1.2482175827026367,
          "394": -4.231194496154785,
          "395": -1.5912723541259766,
          "396": -0.3977676033973694,
          "397": 4.078550338745117,
          "398": 0.5530902743339539,
          "399": -3.0151400566101074
        }
      },
      "inputBias": {
        "rows": 20,
        "columns": 1,
        "weights": {
          "0": -0.8257405161857605,
          "1": 1.9246621131896973,
          "2": 0.8188955783843994,
          "3": -0.08686062693595886,
          "4": 1.1751701831817627,
          "5": -0.884685754776001,
          "6": 3.1756367683410645,
          "7": 0.5091928839683533,
          "8": 2.13620924949646,
          "9": -0.14403516054153442,
          "10": 0.34996941685676575,
          "11": 1.7916337251663208,
          "12": 0.24296826124191284,
          "13": 0.2449253648519516,
          "14": -0.17400817573070526,
          "15": 0.17175519466400146,
          "16": 2.099438190460205,
          "17": 1.339450478553772,
          "18": 0.8075524568557739,
          "19": -0.22387990355491638
        }
      },
      "forgetMatrix": {
        "rows": 20,
        "columns": 31,
        "weights": {
          "0": -0.3428144156932831,
          "1": -0.7673985958099365,
          "2": -3.090240001678467,
          "3": -2.3565852642059326,
          "4": 0.428276926279068,
          "5": 0.9599793553352356,
          "6": -3.0452849864959717,
          "7": -0.41902345418930054,
          "8": 0.7772476077079773,
          "9": -0.5190933346748352,
          "10": -0.44659215211868286,
          "11": 0.41297125816345215,
          "12": 1.2523399591445923,
          "13": 0.9289665222167969,
          "14": 2.006852626800537,
          "15": 1.0732684135437012,
          "16": 0.9424570202827454,
          "17": 2.5824384689331055,
          "18": 0.5745019316673279,
          "19": -0.3782199025154114,
          "20": -0.11235594749450684,
          "21": -1.2003172636032104,
          "22": -0.09793657064437866,
          "23": 2.6377642154693604,
          "24": 3.889718532562256,
          "25": 5.161916255950928,
          "26": -0.33781373500823975,
          "27": -0.7875560522079468,
          "28": 0.46012720465660095,
          "29": -2.7266387939453125,
          "30": 0.5897752046585083,
          "31": -0.729900062084198,
          "32": 0.994373083114624,
          "33": 2.0265443325042725,
          "34": -0.3418833017349243,
          "35": -0.8713033199310303,
          "36": -1.0823218822479248,
          "37": 4.166593074798584,
          "38": -0.4008793532848358,
          "39": 0.636413037776947,
          "40": 2.2802839279174805,
          "41": -1.446580410003662,
          "42": 0.9585083723068237,
          "43": 0.5929008722305298,
          "44": -0.3336811363697052,
          "45": -0.3005180358886719,
          "46": -0.7923554182052612,
          "47": 1.9750418663024902,
          "48": -3.265606641769409,
          "49": 1.1418871879577637,
          "50": -1.794880747795105,
          "51": -1.128408670425415,
          "52": -0.40817177295684814,
          "53": -0.09050104767084122,
          "54": -1.548383355140686,
          "55": 1.2250878810882568,
          "56": 0.23758156597614288,
          "57": 0.33130475878715515,
          "58": 0.9074891805648804,
          "59": 0.43003740906715393,
          "60": -1.6519198417663574,
          "61": -1.1690584421157837,
          "62": -1.603172779083252,
          "63": 0.437441885471344,
          "64": 0.4200092852115631,
          "65": -0.5875557661056519,
          "66": 1.348477840423584,
          "67": -0.07008669525384903,
          "68": -1.1073124408721924,
          "69": -0.1391499787569046,
          "70": 0.8503922820091248,
          "71": -0.38792839646339417,
          "72": 0.2321852147579193,
          "73": 0.20218664407730103,
          "74": -1.415242075920105,
          "75": -2.2764294147491455,
          "76": -0.5377829074859619,
          "77": 0.12977828085422516,
          "78": -0.3481663763523102,
          "79": -0.027739835903048515,
          "80": 1.7144050598144531,
          "81": -2.4187347888946533,
          "82": -0.49942418932914734,
          "83": 1.457346796989441,
          "84": 0.68495774269104,
          "85": 0.0499383844435215,
          "86": -0.947855532169342,
          "87": -0.37637126445770264,
          "88": 1.5367895364761353,
          "89": -0.8004196286201477,
          "90": 1.5258147716522217,
          "91": 0.8817197680473328,
          "92": -1.2512115240097046,
          "93": -1.351702094078064,
          "94": -0.6086881160736084,
          "95": -2.755058526992798,
          "96": 3.2603983879089355,
          "97": -1.7660657167434692,
          "98": 0.0869065597653389,
          "99": 1.4520885944366455,
          "100": 0.5679057836532593,
          "101": 0.13625283539295197,
          "102": -0.5173105001449585,
          "103": -2.986293315887451,
          "104": 1.2851279973983765,
          "105": 3.2452566623687744,
          "106": -0.808427095413208,
          "107": 0.4082539677619934,
          "108": -0.2586166560649872,
          "109": 0.34947776794433594,
          "110": 0.027496660128235817,
          "111": -1.2488913536071777,
          "112": -0.7594382762908936,
          "113": -2.3868966102600098,
          "114": -1.864988923072815,
          "115": -3.045905590057373,
          "116": 0.21673506498336792,
          "117": 0.9234085083007812,
          "118": -0.03819954767823219,
          "119": 5.047685623168945,
          "120": 1.0333387851715088,
          "121": 0.9845427870750427,
          "122": 0.313434362411499,
          "123": -1.3301054239273071,
          "124": 0.5986610651016235,
          "125": -1.1299033164978027,
          "126": 0.9332190155982971,
          "127": 0.09556547552347183,
          "128": -0.9189538359642029,
          "129": 1.447138786315918,
          "130": -0.25120559334754944,
          "131": -1.0552012920379639,
          "132": -1.0962841510772705,
          "133": 3.1865246295928955,
          "134": 1.0675170421600342,
          "135": -1.3795539140701294,
          "136": -0.06581486761569977,
          "137": -0.26678863167762756,
          "138": -1.1578518152236938,
          "139": 0.0813591405749321,
          "140": 3.2892706394195557,
          "141": -0.3095242977142334,
          "142": -0.6806538701057434,
          "143": 2.0137691497802734,
          "144": 1.2787867784500122,
          "145": -1.9121828079223633,
          "146": -1.1857720613479614,
          "147": -2.227632999420166,
          "148": 0.09281240403652191,
          "149": -1.1391162872314453,
          "150": -0.5854578018188477,
          "151": 1.5771187543869019,
          "152": -0.6244296431541443,
          "153": -0.270999014377594,
          "154": 0.8517667651176453,
          "155": 1.1830018758773804,
          "156": 0.9236800074577332,
          "157": -1.3996845483779907,
          "158": -2.991438388824463,
          "159": 1.0515828132629395,
          "160": 1.7318832874298096,
          "161": 1.4099655151367188,
          "162": 1.9901940822601318,
          "163": 0.6878780126571655,
          "164": -0.21589148044586182,
          "165": -1.3925135135650635,
          "166": -1.5542564392089844,
          "167": -2.764986515045166,
          "168": 0.09759595990180969,
          "169": 0.14612944424152374,
          "170": -1.2477829456329346,
          "171": 0.12388961762189865,
          "172": 2.014538526535034,
          "173": -0.887570321559906,
          "174": 0.19221889972686768,
          "175": 0.19846004247665405,
          "176": 1.5783958435058594,
          "177": 2.677659273147583,
          "178": -0.01565459370613098,
          "179": -2.324065923690796,
          "180": -0.03117804415524006,
          "181": 1.5801310539245605,
          "182": -1.5185569524765015,
          "183": 0.7698211669921875,
          "184": -2.249565601348877,
          "185": -0.7653307318687439,
          "186": 0.041418321430683136,
          "187": -1.1689836978912354,
          "188": 1.344236969947815,
          "189": -2.388087034225464,
          "190": -1.6485954523086548,
          "191": 0.6564258337020874,
          "192": 0.2543209493160248,
          "193": -0.08640079945325851,
          "194": -0.7079620957374573,
          "195": 1.0103529691696167,
          "196": 1.4523954391479492,
          "197": 0.21797879040241241,
          "198": -1.589026689529419,
          "199": -1.420663833618164,
          "200": -1.8446965217590332,
          "201": 0.6488975882530212,
          "202": -0.3274717628955841,
          "203": -0.7768315076828003,
          "204": -0.3041309118270874,
          "205": -0.24446900188922882,
          "206": -0.6745187640190125,
          "207": 0.7977663278579712,
          "208": 0.6223484873771667,
          "209": -0.35835084319114685,
          "210": -2.050365686416626,
          "211": -1.9179120063781738,
          "212": -1.377271056175232,
          "213": 1.5667717456817627,
          "214": -1.5327616930007935,
          "215": 0.8980051875114441,
          "216": 0.570656955242157,
          "217": -1.25632905960083,
          "218": 0.5401636958122253,
          "219": 2.087144374847412,
          "220": 2.322756767272949,
          "221": -1.1216596364974976,
          "222": -3.1063663959503174,
          "223": 1.5250622034072876,
          "224": 0.8832688927650452,
          "225": 0.7192572951316833,
          "226": -0.9490071535110474,
          "227": -1.389501690864563,
          "228": 0.9076529145240784,
          "229": 1.2799100875854492,
          "230": -0.22356119751930237,
          "231": 1.9213616847991943,
          "232": -1.3368093967437744,
          "233": -1.0371525287628174,
          "234": -2.522564172744751,
          "235": 0.849433422088623,
          "236": -1.3975505828857422,
          "237": 1.1219242811203003,
          "238": 0.32005050778388977,
          "239": -0.4087415933609009,
          "240": -0.0043335347436368465,
          "241": 1.1178126335144043,
          "242": -1.2204111814498901,
          "243": 1.2017008066177368,
          "244": 1.420474886894226,
          "245": 0.30550146102905273,
          "246": -0.4437832236289978,
          "247": -0.24023650586605072,
          "248": -1.3963377475738525,
          "249": 2.037492036819458,
          "250": -1.499999761581421,
          "251": -1.0701230764389038,
          "252": 0.880353569984436,
          "253": 1.71475350856781,
          "254": -0.03501689061522484,
          "255": 2.1313095092773438,
          "256": -0.19642005860805511,
          "257": -1.5403717756271362,
          "258": -1.9815212488174438,
          "259": 1.0830698013305664,
          "260": -1.2401986122131348,
          "261": -0.9836300611495972,
          "262": 0.5756828784942627,
          "263": -1.851921558380127,
          "264": -0.40527984499931335,
          "265": 0.0827745720744133,
          "266": 1.3510558605194092,
          "267": -1.465315818786621,
          "268": 0.3848014175891876,
          "269": 1.2214984893798828,
          "270": 2.109395742416382,
          "271": 2.0615997314453125,
          "272": -0.45430347323417664,
          "273": 0.8109892010688782,
          "274": 0.6930234432220459,
          "275": -0.8648388981819153,
          "276": 0.6096763610839844,
          "277": -0.9054669737815857,
          "278": -1.7184697389602661,
          "279": -0.8327677845954895,
          "280": 0.5605107545852661,
          "281": 2.5141844749450684,
          "282": -1.679376244544983,
          "283": -2.1108784675598145,
          "284": 1.1212693452835083,
          "285": 2.9880096912384033,
          "286": 0.5310238599777222,
          "287": 0.31747105717658997,
          "288": 1.6975646018981934,
          "289": 0.0017797559266909957,
          "290": 3.270965814590454,
          "291": 0.010047019459307194,
          "292": -0.7102261781692505,
          "293": -2.6550843715667725,
          "294": -2.491872549057007,
          "295": 1.8587678670883179,
          "296": -2.252307176589966,
          "297": 1.6183207035064697,
          "298": 0.2667672336101532,
          "299": 0.5215649604797363,
          "300": -1.4946904182434082,
          "301": 0.7981554865837097,
          "302": -1.7572979927062988,
          "303": -0.37412866950035095,
          "304": -0.7434461712837219,
          "305": -1.055936336517334,
          "306": 2.048435688018799,
          "307": -1.4525772333145142,
          "308": -1.130527377128601,
          "309": 0.8226304054260254,
          "310": -0.49067223072052,
          "311": 1.410996675491333,
          "312": 1.0775830745697021,
          "313": 1.0300440788269043,
          "314": 2.3859260082244873,
          "315": -3.1441056728363037,
          "316": -0.6270220279693604,
          "317": -2.0565645694732666,
          "318": -0.10427204519510269,
          "319": -1.0029011964797974,
          "320": -0.7323557138442993,
          "321": 0.5421406626701355,
          "322": 2.180215835571289,
          "323": 0.7322706580162048,
          "324": 2.3053672313690186,
          "325": -0.0029993602074682713,
          "326": -0.6832302808761597,
          "327": -1.465790033340454,
          "328": 2.776841402053833,
          "329": -3.038515567779541,
          "330": 0.36839818954467773,
          "331": 0.1844457983970642,
          "332": -1.2657066583633423,
          "333": 1.9874130487442017,
          "334": 2.9331600666046143,
          "335": 2.7874419689178467,
          "336": 1.1293494701385498,
          "337": -1.097679853439331,
          "338": 0.4853104054927826,
          "339": -0.3634288012981415,
          "340": -0.3284265398979187,
          "341": -2.6333444118499756,
          "342": 1.0935205221176147,
          "343": 1.419230580329895,
          "344": -4.017637252807617,
          "345": 1.2952364683151245,
          "346": 1.2637044191360474,
          "347": 0.25535011291503906,
          "348": 3.024914264678955,
          "349": -1.0494500398635864,
          "350": -1.4144665002822876,
          "351": 1.7072526216506958,
          "352": 1.9157613515853882,
          "353": -1.5193641185760498,
          "354": 0.6843291521072388,
          "355": 0.14138077199459076,
          "356": 1.410632848739624,
          "357": -1.2964367866516113,
          "358": -1.7052584886550903,
          "359": 1.2515243291854858,
          "360": -1.2233473062515259,
          "361": -0.008563236333429813,
          "362": 2.4354374408721924,
          "363": 3.3273046016693115,
          "364": 0.4306553602218628,
          "365": 0.5219654440879822,
          "366": -0.38469088077545166,
          "367": -0.9311252236366272,
          "368": -1.3668675422668457,
          "369": 0.8913462162017822,
          "370": 1.2948014736175537,
          "371": -0.7559105753898621,
          "372": 0.42262953519821167,
          "373": 0.07804905623197556,
          "374": 1.7701480388641357,
          "375": 1.5109977722167969,
          "376": 0.35076677799224854,
          "377": -1.427605390548706,
          "378": 3.3350112438201904,
          "379": 2.534313440322876,
          "380": 1.500091791152954,
          "381": -0.3349389135837555,
          "382": 1.0940642356872559,
          "383": -2.21933913230896,
          "384": -1.1038177013397217,
          "385": -0.6266257166862488,
          "386": -1.1981494426727295,
          "387": 0.3019392192363739,
          "388": -0.6270257830619812,
          "389": -1.7150367498397827,
          "390": -0.4447465240955353,
          "391": -0.613868236541748,
          "392": 1.62401282787323,
          "393": -0.30146124958992004,
          "394": 0.061836715787649155,
          "395": -2.27067232131958,
          "396": -2.2000529766082764,
          "397": -3.228933095932007,
          "398": 0.1675422191619873,
          "399": 0.3508504331111908,
          "400": 1.3642317056655884,
          "401": 2.7018511295318604,
          "402": 1.0419187545776367,
          "403": 1.6183545589447021,
          "404": -0.9382791519165039,
          "405": -1.07021164894104,
          "406": -0.949151873588562,
          "407": 1.3202458620071411,
          "408": -0.46400102972984314,
          "409": -0.8181814551353455,
          "410": -2.1460108757019043,
          "411": 0.39537516236305237,
          "412": 1.216482400894165,
          "413": 0.03664533048868179,
          "414": 0.5198493599891663,
          "415": 0.7156858444213867,
          "416": -1.06024968624115,
          "417": 0.7825019359588623,
          "418": -2.3097951412200928,
          "419": 0.8550290465354919,
          "420": 1.3098342418670654,
          "421": 1.4949904680252075,
          "422": -0.5189560055732727,
          "423": 0.40608376264572144,
          "424": -0.16951458156108856,
          "425": -0.15777583420276642,
          "426": -0.203056201338768,
          "427": 1.1970757246017456,
          "428": 1.6475422382354736,
          "429": -0.5537440180778503,
          "430": -1.1193745136260986,
          "431": 0.8566628694534302,
          "432": -4.096678733825684,
          "433": -1.684295654296875,
          "434": 0.13034962117671967,
          "435": 0.10173878073692322,
          "436": 1.603990912437439,
          "437": -0.026871586218476295,
          "438": -1.945629358291626,
          "439": -0.5526100993156433,
          "440": 1.8047332763671875,
          "441": -0.3578397035598755,
          "442": -1.55268132686615,
          "443": 1.1797449588775635,
          "444": 1.1022725105285645,
          "445": -0.4954594671726227,
          "446": 0.3269859254360199,
          "447": -0.07825498282909393,
          "448": -0.7146731019020081,
          "449": 1.0730299949645996,
          "450": 2.971463203430176,
          "451": -1.822501301765442,
          "452": -1.0000039339065552,
          "453": 0.7071285843849182,
          "454": 1.2877713441848755,
          "455": -2.1832799911499023,
          "456": -0.07876839488744736,
          "457": -1.044270634651184,
          "458": 0.5436050891876221,
          "459": 0.41695648431777954,
          "460": -0.6619251370429993,
          "461": 1.49007248878479,
          "462": -0.9778261780738831,
          "463": -0.3096808195114136,
          "464": 1.46190345287323,
          "465": 0.5795630812644958,
          "466": 0.16240331530570984,
          "467": 2.412975788116455,
          "468": -0.43118149042129517,
          "469": -0.6205251216888428,
          "470": 1.6772165298461914,
          "471": 3.1496448516845703,
          "472": 0.18739785254001617,
          "473": -0.9247212409973145,
          "474": 0.7239223122596741,
          "475": -0.13754549622535706,
          "476": 1.5820508003234863,
          "477": -0.43834444880485535,
          "478": 1.4121307134628296,
          "479": -1.0975511074066162,
          "480": -0.6538376808166504,
          "481": 0.5910094976425171,
          "482": -3.2399137020111084,
          "483": -0.2940676808357239,
          "484": -0.8077526688575745,
          "485": 1.7130444049835205,
          "486": -0.24163652956485748,
          "487": 0.8568755984306335,
          "488": -0.7748676538467407,
          "489": -0.6045190691947937,
          "490": -2.2557146549224854,
          "491": -1.1742746829986572,
          "492": 2.11220383644104,
          "493": -3.2462103366851807,
          "494": 0.8183385729789734,
          "495": 1.035944938659668,
          "496": -0.9708452820777893,
          "497": 0.6595482230186462,
          "498": 0.4757203459739685,
          "499": -1.0823019742965698,
          "500": 0.30056077241897583,
          "501": 1.6732831001281738,
          "502": -0.01833188161253929,
          "503": 2.7452752590179443,
          "504": 0.8753640055656433,
          "505": -0.9131667613983154,
          "506": -0.44329774379730225,
          "507": 1.148850679397583,
          "508": -1.0584419965744019,
          "509": 1.6512666940689087,
          "510": -2.497173547744751,
          "511": -1.2369930744171143,
          "512": -1.076623797416687,
          "513": -0.5636237263679504,
          "514": -0.22065921127796173,
          "515": -0.011468721553683281,
          "516": 0.37666893005371094,
          "517": -0.877978503704071,
          "518": 1.2792860269546509,
          "519": -0.8360185623168945,
          "520": -1.0521913766860962,
          "521": -1.6458051204681396,
          "522": 0.23470677435398102,
          "523": 0.14911697804927826,
          "524": 0.3910781741142273,
          "525": 1.3244643211364746,
          "526": 0.9177907109260559,
          "527": 0.13068895041942596,
          "528": -0.7704108357429504,
          "529": -1.9099458456039429,
          "530": 1.6954724788665771,
          "531": 0.7262019515037537,
          "532": 0.6770581007003784,
          "533": -0.29512715339660645,
          "534": 1.658586025238037,
          "535": 1.168968677520752,
          "536": -0.6042007803916931,
          "537": -2.5491344928741455,
          "538": 0.06552037596702576,
          "539": -1.5154428482055664,
          "540": -0.7182461619377136,
          "541": -0.2972254157066345,
          "542": -0.44535085558891296,
          "543": -0.09070299565792084,
          "544": 0.9438218474388123,
          "545": -0.4218107759952545,
          "546": -0.8312704563140869,
          "547": -2.394341468811035,
          "548": -0.8775814771652222,
          "549": 0.3047940135002136,
          "550": -0.29084938764572144,
          "551": 0.941272497177124,
          "552": 1.822791337966919,
          "553": 0.5264232158660889,
          "554": -2.4325344562530518,
          "555": 3.0328660011291504,
          "556": -0.25472867488861084,
          "557": -2.190521717071533,
          "558": 3.076489210128784,
          "559": -1.377573013305664,
          "560": -0.685324490070343,
          "561": -0.11196873337030411,
          "562": -0.42419716715812683,
          "563": 0.43953654170036316,
          "564": 1.802969217300415,
          "565": -3.644226312637329,
          "566": -1.4941133260726929,
          "567": -0.9225039482116699,
          "568": -0.9300451278686523,
          "569": 0.1952403485774994,
          "570": 1.2829129695892334,
          "571": -1.7788835763931274,
          "572": 1.4729872941970825,
          "573": -1.3673170804977417,
          "574": 1.9811434745788574,
          "575": 0.10020919889211655,
          "576": -0.004168018698692322,
          "577": 1.0044976472854614,
          "578": -1.4406585693359375,
          "579": -4.71363639831543,
          "580": -0.3457919657230377,
          "581": -0.7214928865432739,
          "582": 0.6901021003723145,
          "583": -0.9241997003555298,
          "584": -0.684191107749939,
          "585": 1.1252987384796143,
          "586": -3.0746865272521973,
          "587": -1.5671502351760864,
          "588": -1.1295381784439087,
          "589": -1.1618366241455078,
          "590": 0.16708174347877502,
          "591": -0.9607937335968018,
          "592": -1.5415748357772827,
          "593": -0.6040574908256531,
          "594": -1.5296363830566406,
          "595": -0.5211660861968994,
          "596": 0.7019517421722412,
          "597": -0.685447633266449,
          "598": 0.4209364652633667,
          "599": 0.1567222625017166,
          "600": -0.2214527130126953,
          "601": -0.2900865375995636,
          "602": -2.735170841217041,
          "603": 1.4056767225265503,
          "604": 0.6550173163414001,
          "605": 1.0912750959396362,
          "606": 0.004415460862219334,
          "607": 2.3986597061157227,
          "608": -1.7194591760635376,
          "609": -1.6991325616836548,
          "610": -1.2475413084030151,
          "611": 0.4104995131492615,
          "612": -0.9625945687294006,
          "613": 3.156548500061035,
          "614": 0.09317199885845184,
          "615": -1.7149338722229004,
          "616": -2.1821448802948,
          "617": 2.1571271419525146,
          "618": -0.6100451350212097,
          "619": -2.7495522499084473
        }
      },
      "forgetHidden": {
        "rows": 20,
        "columns": 20,
        "weights": {
          "0": -1.0873305797576904,
          "1": -0.6853182911872864,
          "2": 1.2638596296310425,
          "3": -1.2102915048599243,
          "4": -0.5290032625198364,
          "5": 0.16198529303073883,
          "6": -1.9427160024642944,
          "7": -0.26970744132995605,
          "8": 2.2028274536132812,
          "9": -0.605789065361023,
          "10": 0.5167291164398193,
          "11": 0.6680582165718079,
          "12": 0.3986011743545532,
          "13": 1.2476325035095215,
          "14": -0.8650642037391663,
          "15": -0.3457942008972168,
          "16": 0.3131962716579437,
          "17": 0.8428541421890259,
          "18": -0.13929910957813263,
          "19": -1.5146856307983398,
          "20": 2.719330310821533,
          "21": 1.621507167816162,
          "22": -0.1602439284324646,
          "23": 0.8282566070556641,
          "24": 0.6440461277961731,
          "25": -0.6470388174057007,
          "26": 0.2920764982700348,
          "27": -0.08568325638771057,
          "28": 0.26757875084877014,
          "29": -0.08692164719104767,
          "30": -0.4046020209789276,
          "31": -1.3871077299118042,
          "32": -0.23397603631019592,
          "33": -0.6828081011772156,
          "34": -0.2595599889755249,
          "35": -0.9567044377326965,
          "36": 0.6481546759605408,
          "37": -1.570838451385498,
          "38": -1.1996914148330688,
          "39": -0.011138626374304295,
          "40": -2.256603240966797,
          "41": -0.268755167722702,
          "42": -5.151522636413574,
          "43": -2.552194356918335,
          "44": 0.3203406035900116,
          "45": -1.37640380859375,
          "46": -0.9589241743087769,
          "47": -1.2946325540542603,
          "48": -0.15640000998973846,
          "49": -0.40590593218803406,
          "50": -2.994277238845825,
          "51": 2.729733467102051,
          "52": 1.581718921661377,
          "53": -0.40912508964538574,
